<?xml version="1.0"?>
<opencv_storage>
<cascade>
  <stageType>BOOST</stageType>
  <featureType>HAAR</featureType>
  <height>40</height>
  <width>40</width>
  <stageParams>
    <boostType>GAB</boostType>
    <minHitRate>9.9500000476837158e-01</minHitRate>
    <maxFalseAlarm>5.0000000000000000e-01</maxFalseAlarm>
    <weightTrimRate>9.4999999999999996e-01</weightTrimRate>
    <maxDepth>1</maxDepth>
    <maxWeakCount>100</maxWeakCount></stageParams>
  <featureParams>
    <maxCatCount>0</maxCatCount>
    <featSize>1</featSize>
    <mode>BASIC</mode></featureParams>
  <stageNum>10</stageNum>
  <stages>
    <!-- stage 0 -->
    <_>
      <maxWeakCount>8</maxWeakCount>
      <stageThreshold>-1.1753968000411987e+00</stageThreshold>
      <weakClassifiers>
        <_>
          <internalNodes>
            0 -1 86 -5.8317021466791630e-03</internalNodes>
          <leafValues>
            7.7462977170944214e-01 -3.5406219959259033e-01</leafValues></_>
        <_>
          <internalNodes>
            0 -1 186 9.7737386822700500e-03</internalNodes>
          <leafValues>
            -2.7602174878120422e-01 6.1959934234619141e-01</leafValues></_>
        <_>
          <internalNodes>
            0 -1 53 2.6516889920458198e-04</internalNodes>
          <leafValues>
            -3.6579391360282898e-01 5.6484109163284302e-01</leafValues></_>
        <_>
          <internalNodes>
            0 -1 152 4.5579271391034126e-03</internalNodes>
          <leafValues>
            -3.0582287907600403e-01 5.6620168685913086e-01</leafValues></_>
        <_>
          <internalNodes>
            0 -1 200 1.1753931641578674e-02</internalNodes>
          <leafValues>
            -3.6600929498672485e-01 4.9764052033424377e-01</leafValues></_>
        <_>
          <internalNodes>
            0 -1 14 -3.3076428808271885e-03</internalNodes>
          <leafValues>
            4.4112423062324524e-01 -3.3184343576431274e-01</leafValues></_>
        <_>
          <internalNodes>
            0 -1 79 -2.1245284005999565e-03</internalNodes>
          <leafValues>
            4.0357941389083862e-01 -3.5890275239944458e-01</leafValues></_>
        <_>
          <internalNodes>
            0 -1 192 -1.7723316559568048e-03</internalNodes>
          <leafValues>
            3.0362921953201294e-01 -4.7504380345344543e-01</leafValues></_></weakClassifiers></_>
    <!-- stage 1 -->
    <_>
      <maxWeakCount>12</maxWeakCount>
      <stageThreshold>-9.5282673835754395e-01</stageThreshold>
      <weakClassifiers>
        <_>
          <internalNodes>
            0 -1 69 -1.1079039424657822e-02</internalNodes>
          <leafValues>
            7.2005772590637207e-01 -1.2714776396751404e-01</leafValues></_>
        <_>
          <internalNodes>
            0 -1 47 -6.4787846058607101e-03</internalNodes>
          <leafValues>
            7.0140403509140015e-01 -2.2014619410037994e-01</leafValues></_>
        <_>
          <internalNodes>
            0 -1 82 1.0451616719365120e-02</internalNodes>
          <leafValues>
            -2.0812751352787018e-01 7.1559029817581177e-01</leafValues></_>
        <_>
          <internalNodes>
            0 -1 202 3.2669738866388798e-03</internalNodes>
          <leafValues>
            -4.0846464037895203e-01 4.7660011053085327e-01</leafValues></_>
        <_>
          <internalNodes>
            0 -1 11 -6.7290137521922588e-03</internalNodes>
          <leafValues>
            3.9375746250152588e-01 -3.9135205745697021e-01</leafValues></_>
        <_>
          <internalNodes>
            0 -1 177 -2.5974931195378304e-03</internalNodes>
          <leafValues>
            4.3031728267669678e-01 -3.8631796836853027e-01</leafValues></_>
        <_>
          <internalNodes>
            0 -1 197 1.9995201379060745e-02</internalNodes>
          <leafValues>
            -1.2007420510053635e-01 7.7883893251419067e-01</leafValues></_>
        <_>
          <internalNodes>
            0 -1 138 -1.1264531640335917e-03</internalNodes>
          <leafValues>
            3.0741143226623535e-01 -2.9446136951446533e-01</leafValues></_>
        <_>
          <internalNodes>
            0 -1 88 1.7781179398298264e-02</internalNodes>
          <leafValues>
            -1.2056814134120941e-01 6.9068497419357300e-01</leafValues></_>
        <_>
          <internalNodes>
            0 -1 150 1.9319027662277222e-02</internalNodes>
          <leafValues>
            -1.1663869023323059e-01 8.5440570116043091e-01</leafValues></_>
        <_>
          <internalNodes>
            0 -1 17 -6.0981810092926025e-03</internalNodes>
          <leafValues>
            3.9154896140098572e-01 -2.1215341985225677e-01</leafValues></_>
        <_>
          <internalNodes>
            0 -1 126 -2.0565390586853027e-03</internalNodes>
          <leafValues>
            2.6564288139343262e-01 -3.1826785206794739e-01</leafValues></_></weakClassifiers></_>
    <!-- stage 2 -->
    <_>
      <maxWeakCount>21</maxWeakCount>
      <stageThreshold>-1.0858882665634155e+00</stageThreshold>
      <weakClassifiers>
        <_>
          <internalNodes>
            0 -1 103 -1.6160745173692703e-02</internalNodes>
          <leafValues>
            6.5317916870117188e-01 -4.6312179416418076e-02</leafValues></_>
        <_>
          <internalNodes>
            0 -1 71 3.1215519993565977e-04</internalNodes>
          <leafValues>
            -2.5726866722106934e-01 4.6275687217712402e-01</leafValues></_>
        <_>
          <internalNodes>
            0 -1 189 1.8046954646706581e-02</internalNodes>
          <leafValues>
            -2.0894329249858856e-01 6.1257994174957275e-01</leafValues></_>
        <_>
          <internalNodes>
            0 -1 142 4.3342020362615585e-02</internalNodes>
          <leafValues>
            -2.0728975534439087e-01 6.5371733903884888e-01</leafValues></_>
        <_>
          <internalNodes>
            0 -1 16 -6.2055941671133041e-03</internalNodes>
          <leafValues>
            3.8900655508041382e-01 -2.6244297623634338e-01</leafValues></_>
        <_>
          <internalNodes>
            0 -1 27 -3.1172542367130518e-03</internalNodes>
          <leafValues>
            3.1041285395622253e-01 -2.8787666559219360e-01</leafValues></_>
        <_>
          <internalNodes>
            0 -1 210 1.7689743544906378e-03</internalNodes>
          <leafValues>
            -3.3219709992408752e-01 2.4806693196296692e-01</leafValues></_>
        <_>
          <internalNodes>
            0 -1 127 2.1204811055213213e-03</internalNodes>
          <leafValues>
            -2.0466178655624390e-01 4.5945322513580322e-01</leafValues></_>
        <_>
          <internalNodes>
            0 -1 201 -2.8351649641990662e-02</internalNodes>
          <leafValues>
            5.5672061443328857e-01 -1.1977304518222809e-01</leafValues></_>
        <_>
          <internalNodes>
            0 -1 163 2.2129435092210770e-02</internalNodes>
          <leafValues>
            -1.0898939520120621e-01 7.4799877405166626e-01</leafValues></_>
        <_>
          <internalNodes>
            0 -1 65 8.8039729744195938e-03</internalNodes>
          <leafValues>
            -1.4465478062629700e-01 5.1295572519302368e-01</leafValues></_>
        <_>
          <internalNodes>
            0 -1 131 1.9853955600410700e-03</internalNodes>
          <leafValues>
            -2.3012804985046387e-01 3.2996571063995361e-01</leafValues></_>
        <_>
          <internalNodes>
            0 -1 132 -2.5464732199907303e-02</internalNodes>
          <leafValues>
            4.6538847684860229e-01 -1.7411211133003235e-01</leafValues></_>
        <_>
          <internalNodes>
            0 -1 57 2.4361569376196712e-04</internalNodes>
          <leafValues>
            -2.1860305964946747e-01 3.2054251432418823e-01</leafValues></_>
        <_>
          <internalNodes>
            0 -1 23 1.2937842402607203e-03</internalNodes>
          <leafValues>
            -2.2628340125083923e-01 3.8754236698150635e-01</leafValues></_>
        <_>
          <internalNodes>
            0 -1 116 -1.6328184865415096e-03</internalNodes>
          <leafValues>
            4.2445933818817139e-01 -1.8832571804523468e-01</leafValues></_>
        <_>
          <internalNodes>
            0 -1 183 -1.7778344918042421e-03</internalNodes>
          <leafValues>
            -7.1686619520187378e-01 1.1115042120218277e-01</leafValues></_>
        <_>
          <internalNodes>
            0 -1 73 -5.9364149346947670e-03</internalNodes>
          <leafValues>
            4.1958129405975342e-01 -1.7065346240997314e-01</leafValues></_>
        <_>
          <internalNodes>
            0 -1 68 -8.7545476853847504e-03</internalNodes>
          <leafValues>
            5.3198552131652832e-01 -1.2129618972539902e-01</leafValues></_>
        <_>
          <internalNodes>
            0 -1 153 2.2408578079193830e-03</internalNodes>
          <leafValues>
            -1.9241738319396973e-01 3.8605758547782898e-01</leafValues></_>
        <_>
          <internalNodes>
            0 -1 119 2.0593362860381603e-03</internalNodes>
          <leafValues>
            1.2801019847393036e-01 -6.6019701957702637e-01</leafValues></_></weakClassifiers></_>
    <!-- stage 3 -->
    <_>
      <maxWeakCount>18</maxWeakCount>
      <stageThreshold>-9.1054201126098633e-01</stageThreshold>
      <weakClassifiers>
        <_>
          <internalNodes>
            0 -1 203 2.6151733472943306e-02</internalNodes>
          <leafValues>
            1.1345028877258301e-01 7.8095239400863647e-01</leafValues></_>
        <_>
          <internalNodes>
            0 -1 151 9.5357811078429222e-03</internalNodes>
          <leafValues>
            -1.8292203545570374e-01 5.4258406162261963e-01</leafValues></_>
        <_>
          <internalNodes>
            0 -1 30 -2.3021879605948925e-03</internalNodes>
          <leafValues>
            4.4422408938407898e-01 -2.8177466988563538e-01</leafValues></_>
        <_>
          <internalNodes>
            0 -1 148 1.1905835941433907e-02</internalNodes>
          <leafValues>
            -2.8564113378524780e-01 3.2981824874877930e-01</leafValues></_>
        <_>
          <internalNodes>
            0 -1 141 5.0576373934745789e-02</internalNodes>
          <leafValues>
            -1.4436313509941101e-01 7.0458102226257324e-01</leafValues></_>
        <_>
          <internalNodes>
            0 -1 72 5.2676862105727196e-04</internalNodes>
          <leafValues>
            -2.8847908973693848e-01 3.6468762159347534e-01</leafValues></_>
        <_>
          <internalNodes>
            0 -1 213 -3.6531151272356510e-03</internalNodes>
          <leafValues>
            2.7213612198829651e-01 -3.3500662446022034e-01</leafValues></_>
        <_>
          <internalNodes>
            0 -1 80 -5.2875978872179985e-03</internalNodes>
          <leafValues>
            2.8502100706100464e-01 -3.0367931723594666e-01</leafValues></_>
        <_>
          <internalNodes>
            0 -1 106 -3.8315793499350548e-03</internalNodes>
          <leafValues>
            2.7293032407760620e-01 -3.5503691434860229e-01</leafValues></_>
        <_>
          <internalNodes>
            0 -1 187 1.7224317416548729e-02</internalNodes>
          <leafValues>
            -1.7897252738475800e-01 4.4935968518257141e-01</leafValues></_>
        <_>
          <internalNodes>
            0 -1 5 1.1096280999481678e-02</internalNodes>
          <leafValues>
            -1.2024506181478500e-01 6.3071674108505249e-01</leafValues></_>
        <_>
          <internalNodes>
            0 -1 178 -2.6959148235619068e-03</internalNodes>
          <leafValues>
            2.4391439557075500e-01 -3.2639956474304199e-01</leafValues></_>
        <_>
          <internalNodes>
            0 -1 84 7.5368313118815422e-03</internalNodes>
          <leafValues>
            -1.5190611779689789e-01 4.6786245703697205e-01</leafValues></_>
        <_>
          <internalNodes>
            0 -1 12 1.7205901443958282e-02</internalNodes>
          <leafValues>
            -1.5544112026691437e-01 4.4827193021774292e-01</leafValues></_>
        <_>
          <internalNodes>
            0 -1 22 -1.6644168645143509e-02</internalNodes>
          <leafValues>
            4.6356123685836792e-01 -1.7323572933673859e-01</leafValues></_>
        <_>
          <internalNodes>
            0 -1 77 -6.0711137484759092e-04</internalNodes>
          <leafValues>
            -8.2657063007354736e-01 9.5141530036926270e-02</leafValues></_>
        <_>
          <internalNodes>
            0 -1 180 8.7892316514626145e-04</internalNodes>
          <leafValues>
            1.1357789486646652e-01 -5.8061283826828003e-01</leafValues></_>
        <_>
          <internalNodes>
            0 -1 28 2.4370565079152584e-03</internalNodes>
          <leafValues>
            -1.8766921758651733e-01 3.6296558380126953e-01</leafValues></_></weakClassifiers></_>
    <!-- stage 4 -->
    <_>
      <maxWeakCount>26</maxWeakCount>
      <stageThreshold>-9.4945424795150757e-01</stageThreshold>
      <weakClassifiers>
        <_>
          <internalNodes>
            0 -1 49 -3.2627708278596401e-03</internalNodes>
          <leafValues>
            7.1200001239776611e-01 8.9032255113124847e-02</leafValues></_>
        <_>
          <internalNodes>
            0 -1 155 1.0945803485810757e-02</internalNodes>
          <leafValues>
            -1.5739294886589050e-01 6.0507172346115112e-01</leafValues></_>
        <_>
          <internalNodes>
            0 -1 206 2.3165784776210785e-02</internalNodes>
          <leafValues>
            -2.0173439383506775e-01 5.9013044834136963e-01</leafValues></_>
        <_>
          <internalNodes>
            0 -1 55 5.8916077250614762e-05</internalNodes>
          <leafValues>
            -2.1360507607460022e-01 3.0968505144119263e-01</leafValues></_>
        <_>
          <internalNodes>
            0 -1 43 1.8878411501646042e-02</internalNodes>
          <leafValues>
            -1.7943307757377625e-01 4.3176347017288208e-01</leafValues></_>
        <_>
          <internalNodes>
            0 -1 158 -1.0571599937975407e-02</internalNodes>
          <leafValues>
            2.2420978546142578e-01 -4.1564992070198059e-01</leafValues></_>
        <_>
          <internalNodes>
            0 -1 24 -1.3368006329983473e-03</internalNodes>
          <leafValues>
            3.1890705227851868e-01 -2.0017285645008087e-01</leafValues></_>
        <_>
          <internalNodes>
            0 -1 170 8.1659723073244095e-03</internalNodes>
          <leafValues>
            -1.1991144716739655e-01 5.1533824205398560e-01</leafValues></_>
        <_>
          <internalNodes>
            0 -1 159 3.0898930504918098e-02</internalNodes>
          <leafValues>
            -1.4645580947399139e-01 4.6770074963569641e-01</leafValues></_>
        <_>
          <internalNodes>
            0 -1 25 -6.9088283926248550e-03</internalNodes>
          <leafValues>
            3.7169241905212402e-01 -1.6645878553390503e-01</leafValues></_>
        <_>
          <internalNodes>
            0 -1 144 1.0652001947164536e-02</internalNodes>
          <leafValues>
            -1.3868980109691620e-01 4.1186675429344177e-01</leafValues></_>
        <_>
          <internalNodes>
            0 -1 67 9.3032186850905418e-03</internalNodes>
          <leafValues>
            -1.0262501239776611e-01 5.4706865549087524e-01</leafValues></_>
        <_>
          <internalNodes>
            0 -1 190 -5.7485664729028940e-04</internalNodes>
          <leafValues>
            2.3765116930007935e-01 -2.4415364861488342e-01</leafValues></_>
        <_>
          <internalNodes>
            0 -1 130 -8.3750579506158829e-03</internalNodes>
          <leafValues>
            3.2661095261573792e-01 -1.6780634224414825e-01</leafValues></_>
        <_>
          <internalNodes>
            0 -1 109 6.7780361860059202e-05</internalNodes>
          <leafValues>
            -2.4488922953605652e-01 2.6955541968345642e-01</leafValues></_>
        <_>
          <internalNodes>
            0 -1 181 6.6368468105792999e-04</internalNodes>
          <leafValues>
            1.0744174569845200e-01 -5.3786987066268921e-01</leafValues></_>
        <_>
          <internalNodes>
            0 -1 108 3.2108973246067762e-03</internalNodes>
          <leafValues>
            8.5087701678276062e-02 -6.7980509996414185e-01</leafValues></_>
        <_>
          <internalNodes>
            0 -1 123 2.9326160438358784e-03</internalNodes>
          <leafValues>
            8.3840511739253998e-02 -5.6620901823043823e-01</leafValues></_>
        <_>
          <internalNodes>
            0 -1 125 -6.3473999034613371e-04</internalNodes>
          <leafValues>
            -5.9772175550460815e-01 8.3702340722084045e-02</leafValues></_>
        <_>
          <internalNodes>
            0 -1 3 6.7896712571382523e-03</internalNodes>
          <leafValues>
            -1.0649099200963974e-01 5.1453900337219238e-01</leafValues></_>
        <_>
          <internalNodes>
            0 -1 74 1.0955136269330978e-02</internalNodes>
          <leafValues>
            -1.0025539994239807e-01 5.2610069513320923e-01</leafValues></_>
        <_>
          <internalNodes>
            0 -1 66 1.5868242830038071e-02</internalNodes>
          <leafValues>
            -1.5666323900222778e-01 4.0229296684265137e-01</leafValues></_>
        <_>
          <internalNodes>
            0 -1 139 6.6044954583048820e-03</internalNodes>
          <leafValues>
            -1.2244409322738647e-01 4.5451623201370239e-01</leafValues></_>
        <_>
          <internalNodes>
            0 -1 215 3.2217897474765778e-02</internalNodes>
          <leafValues>
            -9.5718741416931152e-02 5.7294446229934692e-01</leafValues></_>
        <_>
          <internalNodes>
            0 -1 172 2.3852221202105284e-03</internalNodes>
          <leafValues>
            -1.8079058825969696e-01 3.3774045109748840e-01</leafValues></_>
        <_>
          <internalNodes>
            0 -1 136 3.1805317848920822e-03</internalNodes>
          <leafValues>
            1.0597339272499084e-01 -5.3436261415481567e-01</leafValues></_></weakClassifiers></_>
    <!-- stage 5 -->
    <_>
      <maxWeakCount>25</maxWeakCount>
      <stageThreshold>-1.0099691152572632e+00</stageThreshold>
      <weakClassifiers>
        <_>
          <internalNodes>
            0 -1 199 3.5444153472781181e-03</internalNodes>
          <leafValues>
            6.8164795637130737e-02 6.2469136714935303e-01</leafValues></_>
        <_>
          <internalNodes>
            0 -1 156 3.0320459045469761e-03</internalNodes>
          <leafValues>
            -1.4088492095470428e-01 5.2730023860931396e-01</leafValues></_>
        <_>
          <internalNodes>
            0 -1 2 2.8349276632070541e-02</internalNodes>
          <leafValues>
            -1.7894095182418823e-01 6.1181092262268066e-01</leafValues></_>
        <_>
          <internalNodes>
            0 -1 48 -3.3613427076488733e-03</internalNodes>
          <leafValues>
            3.9019352197647095e-01 -1.8314948678016663e-01</leafValues></_>
        <_>
          <internalNodes>
            0 -1 169 2.1360587328672409e-02</internalNodes>
          <leafValues>
            -2.1244965493679047e-01 4.2527526617050171e-01</leafValues></_>
        <_>
          <internalNodes>
            0 -1 146 -1.3708103448152542e-02</internalNodes>
          <leafValues>
            3.8260769844055176e-01 -1.5701703727245331e-01</leafValues></_>
        <_>
          <internalNodes>
            0 -1 96 -1.3498233165591955e-03</internalNodes>
          <leafValues>
            3.8565072417259216e-01 -1.8014380335807800e-01</leafValues></_>
        <_>
          <internalNodes>
            0 -1 184 6.0407293494790792e-04</internalNodes>
          <leafValues>
            -1.8894228339195251e-01 3.3102893829345703e-01</leafValues></_>
        <_>
          <internalNodes>
            0 -1 219 2.5689904578030109e-03</internalNodes>
          <leafValues>
            -1.3399358093738556e-01 4.3781471252441406e-01</leafValues></_>
        <_>
          <internalNodes>
            0 -1 10 2.0420644432306290e-02</internalNodes>
          <leafValues>
            -2.4293883144855499e-01 2.8479829430580139e-01</leafValues></_>
        <_>
          <internalNodes>
            0 -1 20 -8.3508882671594620e-03</internalNodes>
          <leafValues>
            2.9893630743026733e-01 -2.1085640788078308e-01</leafValues></_>
        <_>
          <internalNodes>
            0 -1 115 -1.0532704181969166e-03</internalNodes>
          <leafValues>
            2.8324753046035767e-01 -2.3171420395374298e-01</leafValues></_>
        <_>
          <internalNodes>
            0 -1 52 -4.3481629109010100e-04</internalNodes>
          <leafValues>
            -6.8403404951095581e-01 9.8141022026538849e-02</leafValues></_>
        <_>
          <internalNodes>
            0 -1 222 -2.1161490585654974e-03</internalNodes>
          <leafValues>
            3.7653455138206482e-01 -1.6313210129737854e-01</leafValues></_>
        <_>
          <internalNodes>
            0 -1 39 4.1375018190592527e-04</internalNodes>
          <leafValues>
            -1.9451962411403656e-01 3.7634980678558350e-01</leafValues></_>
        <_>
          <internalNodes>
            0 -1 34 -3.2834990415722132e-03</internalNodes>
          <leafValues>
            5.1897984743118286e-01 -1.0154098272323608e-01</leafValues></_>
        <_>
          <internalNodes>
            0 -1 105 1.4180524740368128e-03</internalNodes>
          <leafValues>
            1.2432682514190674e-01 -5.1481205224990845e-01</leafValues></_>
        <_>
          <internalNodes>
            0 -1 118 1.1180588975548744e-02</internalNodes>
          <leafValues>
            1.3480670750141144e-01 -4.1424760222434998e-01</leafValues></_>
        <_>
          <internalNodes>
            0 -1 63 -1.4476891374215484e-03</internalNodes>
          <leafValues>
            2.0259974896907806e-01 -2.7760475873947144e-01</leafValues></_>
        <_>
          <internalNodes>
            0 -1 42 -1.7521508561912924e-04</internalNodes>
          <leafValues>
            3.4522688388824463e-01 -1.7168994247913361e-01</leafValues></_>
        <_>
          <internalNodes>
            0 -1 61 -5.4609577637165785e-04</internalNodes>
          <leafValues>
            3.1320244073867798e-01 -1.9291286170482635e-01</leafValues></_>
        <_>
          <internalNodes>
            0 -1 9 -1.8147474620491266e-03</internalNodes>
          <leafValues>
            3.6940523982048035e-01 -1.5356665849685669e-01</leafValues></_>
        <_>
          <internalNodes>
            0 -1 207 6.7236239556223154e-04</internalNodes>
          <leafValues>
            7.8537024557590485e-02 -7.5446265935897827e-01</leafValues></_>
        <_>
          <internalNodes>
            0 -1 83 4.0112053975462914e-03</internalNodes>
          <leafValues>
            -1.4376483857631683e-01 4.2311203479766846e-01</leafValues></_>
        <_>
          <internalNodes>
            0 -1 214 7.7609310392290354e-04</internalNodes>
          <leafValues>
            -2.3267093300819397e-01 2.4379929900169373e-01</leafValues></_></weakClassifiers></_>
    <!-- stage 6 -->
    <_>
      <maxWeakCount>27</maxWeakCount>
      <stageThreshold>-7.9971259832382202e-01</stageThreshold>
      <weakClassifiers>
        <_>
          <internalNodes>
            0 -1 107 3.1700485851615667e-04</internalNodes>
          <leafValues>
            2.8037382289767265e-02 5.9504735469818115e-01</leafValues></_>
        <_>
          <internalNodes>
            0 -1 223 -4.7927503474056721e-03</internalNodes>
          <leafValues>
            5.0202912092208862e-01 -1.1057727783918381e-01</leafValues></_>
        <_>
          <internalNodes>
            0 -1 161 3.7481482140719891e-03</internalNodes>
          <leafValues>
            -1.2209501862525940e-01 5.0113880634307861e-01</leafValues></_>
        <_>
          <internalNodes>
            0 -1 18 -1.8869760679081082e-03</internalNodes>
          <leafValues>
            2.6184183359146118e-01 -2.5952970981597900e-01</leafValues></_>
        <_>
          <internalNodes>
            0 -1 124 -2.6237489655613899e-03</internalNodes>
          <leafValues>
            1.9767481088638306e-01 -3.5150802135467529e-01</leafValues></_>
        <_>
          <internalNodes>
            0 -1 32 1.2122598709538579e-03</internalNodes>
          <leafValues>
            -2.2423122823238373e-01 2.9085555672645569e-01</leafValues></_>
        <_>
          <internalNodes>
            0 -1 205 4.2156330309808254e-03</internalNodes>
          <leafValues>
            -2.3104737699031830e-01 3.1448543071746826e-01</leafValues></_>
        <_>
          <internalNodes>
            0 -1 176 -3.7221740931272507e-03</internalNodes>
          <leafValues>
            2.6193261146545410e-01 -2.4747270345687866e-01</leafValues></_>
        <_>
          <internalNodes>
            0 -1 218 5.3108052816241980e-04</internalNodes>
          <leafValues>
            7.9211674630641937e-02 -6.7016953229904175e-01</leafValues></_>
        <_>
          <internalNodes>
            0 -1 147 2.3311292752623558e-02</internalNodes>
          <leafValues>
            -9.2327810823917389e-02 6.2447154521942139e-01</leafValues></_>
        <_>
          <internalNodes>
            0 -1 110 -2.9677222482860088e-03</internalNodes>
          <leafValues>
            4.4902652502059937e-01 -1.3594125211238861e-01</leafValues></_>
        <_>
          <internalNodes>
            0 -1 1 1.6731503419578075e-03</internalNodes>
          <leafValues>
            -2.6025101542472839e-01 2.3251482844352722e-01</leafValues></_>
        <_>
          <internalNodes>
            0 -1 171 2.3447178304195404e-02</internalNodes>
          <leafValues>
            -8.5798479616641998e-02 6.5079569816589355e-01</leafValues></_>
        <_>
          <internalNodes>
            0 -1 97 -5.7269155513495207e-04</internalNodes>
          <leafValues>
            2.5502842664718628e-01 -2.0612528920173645e-01</leafValues></_>
        <_>
          <internalNodes>
            0 -1 58 -4.0178740164265037e-04</internalNodes>
          <leafValues>
            -6.2478512525558472e-01 9.4931110739707947e-02</leafValues></_>
        <_>
          <internalNodes>
            0 -1 44 -3.3075565006583929e-03</internalNodes>
          <leafValues>
            -6.1017566919326782e-01 7.9084701836109161e-02</leafValues></_>
        <_>
          <internalNodes>
            0 -1 216 4.9419261515140533e-02</internalNodes>
          <leafValues>
            -7.1258947253227234e-02 8.9015257358551025e-01</leafValues></_>
        <_>
          <internalNodes>
            0 -1 168 6.8586843553930521e-04</internalNodes>
          <leafValues>
            1.0408268123865128e-01 -6.2176215648651123e-01</leafValues></_>
        <_>
          <internalNodes>
            0 -1 225 -8.3577382611110806e-04</internalNodes>
          <leafValues>
            3.3835798501968384e-01 -1.5948371589183807e-01</leafValues></_>
        <_>
          <internalNodes>
            0 -1 198 -6.5893717110157013e-03</internalNodes>
          <leafValues>
            -6.3839936256408691e-01 8.4869489073753357e-02</leafValues></_>
        <_>
          <internalNodes>
            0 -1 121 -1.2757480144500732e-03</internalNodes>
          <leafValues>
            3.1930696964263916e-01 -1.7416563630104065e-01</leafValues></_>
        <_>
          <internalNodes>
            0 -1 45 4.4345716014504433e-03</internalNodes>
          <leafValues>
            8.4806069731712341e-02 -6.4855641126632690e-01</leafValues></_>
        <_>
          <internalNodes>
            0 -1 194 -1.3087646220810711e-04</internalNodes>
          <leafValues>
            2.6644614338874817e-01 -1.9632300734519958e-01</leafValues></_>
        <_>
          <internalNodes>
            0 -1 173 -4.5467512682080269e-03</internalNodes>
          <leafValues>
            -4.4719865918159485e-01 1.2134779244661331e-01</leafValues></_>
        <_>
          <internalNodes>
            0 -1 0 -9.6652200445532799e-03</internalNodes>
          <leafValues>
            -3.1395328044891357e-01 1.4709345996379852e-01</leafValues></_>
        <_>
          <internalNodes>
            0 -1 122 -1.0020716581493616e-03</internalNodes>
          <leafValues>
            -5.2282285690307617e-01 9.2009261250495911e-02</leafValues></_>
        <_>
          <internalNodes>
            0 -1 111 -4.1987691074609756e-03</internalNodes>
          <leafValues>
            3.4711354970932007e-01 -1.4887905120849609e-01</leafValues></_></weakClassifiers></_>
    <!-- stage 7 -->
    <_>
      <maxWeakCount>29</maxWeakCount>
      <stageThreshold>-8.5260313749313354e-01</stageThreshold>
      <weakClassifiers>
        <_>
          <internalNodes>
            0 -1 92 5.7559103879611939e-05</internalNodes>
          <leafValues>
            2.7027027681469917e-02 5.5585646629333496e-01</leafValues></_>
        <_>
          <internalNodes>
            0 -1 188 2.2600704804062843e-02</internalNodes>
          <leafValues>
            -1.4528897404670715e-01 4.8367691040039063e-01</leafValues></_>
        <_>
          <internalNodes>
            0 -1 89 -3.6104153841733932e-03</internalNodes>
          <leafValues>
            2.5439184904098511e-01 -3.1780937314033508e-01</leafValues></_>
        <_>
          <internalNodes>
            0 -1 94 -1.4982612337917089e-03</internalNodes>
          <leafValues>
            3.5228747129440308e-01 -1.6120705008506775e-01</leafValues></_>
        <_>
          <internalNodes>
            0 -1 160 2.0808547735214233e-02</internalNodes>
          <leafValues>
            -1.5634803473949432e-01 5.6773519515991211e-01</leafValues></_>
        <_>
          <internalNodes>
            0 -1 7 -4.5374585315585136e-03</internalNodes>
          <leafValues>
            2.9991278052330017e-01 -1.9308485090732574e-01</leafValues></_>
        <_>
          <internalNodes>
            0 -1 140 8.2124099135398865e-03</internalNodes>
          <leafValues>
            -1.6428026556968689e-01 3.8233581185340881e-01</leafValues></_>
        <_>
          <internalNodes>
            0 -1 215 3.9364196360111237e-02</internalNodes>
          <leafValues>
            -9.9720299243927002e-02 6.5218985080718994e-01</leafValues></_>
        <_>
          <internalNodes>
            0 -1 102 -5.3923222003504634e-04</internalNodes>
          <leafValues>
            2.5866833329200745e-01 -2.3715481162071228e-01</leafValues></_>
        <_>
          <internalNodes>
            0 -1 40 -4.2489375919103622e-03</internalNodes>
          <leafValues>
            2.9205757379531860e-01 -2.0280444622039795e-01</leafValues></_>
        <_>
          <internalNodes>
            0 -1 19 2.7431309223175049e-02</internalNodes>
          <leafValues>
            -1.2316851317882538e-01 4.8104599118232727e-01</leafValues></_>
        <_>
          <internalNodes>
            0 -1 70 1.6308481281157583e-04</internalNodes>
          <leafValues>
            -2.2456546127796173e-01 2.5958719849586487e-01</leafValues></_>
        <_>
          <internalNodes>
            0 -1 128 1.8418014515191317e-03</internalNodes>
          <leafValues>
            9.3536801636219025e-02 -5.8250570297241211e-01</leafValues></_>
        <_>
          <internalNodes>
            0 -1 33 -6.3242093892768025e-04</internalNodes>
          <leafValues>
            -5.9096854925155640e-01 6.4024344086647034e-02</leafValues></_>
        <_>
          <internalNodes>
            0 -1 133 1.0882877744734287e-02</internalNodes>
          <leafValues>
            -8.0349192023277283e-02 6.5548992156982422e-01</leafValues></_>
        <_>
          <internalNodes>
            0 -1 166 -2.7284736279398203e-03</internalNodes>
          <leafValues>
            2.1247142553329468e-01 -3.0737835168838501e-01</leafValues></_>
        <_>
          <internalNodes>
            0 -1 212 3.4567399416118860e-04</internalNodes>
          <leafValues>
            -1.9239093363285065e-01 2.5403124094009399e-01</leafValues></_>
        <_>
          <internalNodes>
            0 -1 50 4.9630096182227135e-03</internalNodes>
          <leafValues>
            -1.1695238947868347e-01 4.0660342574119568e-01</leafValues></_>
        <_>
          <internalNodes>
            0 -1 95 -3.3634398132562637e-03</internalNodes>
          <leafValues>
            4.1440287232398987e-01 -1.2867306172847748e-01</leafValues></_>
        <_>
          <internalNodes>
            0 -1 75 1.5682105440646410e-03</internalNodes>
          <leafValues>
            8.5854485630989075e-02 -7.9730129241943359e-01</leafValues></_>
        <_>
          <internalNodes>
            0 -1 137 1.1639004573225975e-02</internalNodes>
          <leafValues>
            -1.1056153476238251e-01 5.1139956712722778e-01</leafValues></_>
        <_>
          <internalNodes>
            0 -1 211 -1.0283445008099079e-02</internalNodes>
          <leafValues>
            3.0346119403839111e-01 -1.7552037537097931e-01</leafValues></_>
        <_>
          <internalNodes>
            0 -1 120 7.4994373135268688e-03</internalNodes>
          <leafValues>
            -1.6954495012760162e-01 2.8631415963172913e-01</leafValues></_>
        <_>
          <internalNodes>
            0 -1 15 -1.8939616857096553e-03</internalNodes>
          <leafValues>
            2.1676926314830780e-01 -2.2655570507049561e-01</leafValues></_>
        <_>
          <internalNodes>
            0 -1 59 4.0346389869228005e-04</internalNodes>
          <leafValues>
            -1.6354264318943024e-01 2.9463735222816467e-01</leafValues></_>
        <_>
          <internalNodes>
            0 -1 54 -7.1518197655677795e-03</internalNodes>
          <leafValues>
            3.6436274647712708e-01 -1.5258613228797913e-01</leafValues></_>
        <_>
          <internalNodes>
            0 -1 135 1.9373183604329824e-03</internalNodes>
          <leafValues>
            -1.4710250496864319e-01 3.1763216853141785e-01</leafValues></_>
        <_>
          <internalNodes>
            0 -1 60 -7.8295200364664197e-04</internalNodes>
          <leafValues>
            -5.7009571790695190e-01 8.4434188902378082e-02</leafValues></_>
        <_>
          <internalNodes>
            0 -1 143 2.1568480879068375e-03</internalNodes>
          <leafValues>
            -1.8151633441448212e-01 2.6298326253890991e-01</leafValues></_></weakClassifiers></_>
    <!-- stage 8 -->
    <_>
      <maxWeakCount>30</maxWeakCount>
      <stageThreshold>-9.3085390329360962e-01</stageThreshold>
      <weakClassifiers>
        <_>
          <internalNodes>
            0 -1 185 9.8112486302852631e-03</internalNodes>
          <leafValues>
            8.3398282527923584e-02 5.8642464876174927e-01</leafValues></_>
        <_>
          <internalNodes>
            0 -1 85 2.6826538145542145e-02</internalNodes>
          <leafValues>
            -1.2059608101844788e-01 5.1217144727706909e-01</leafValues></_>
        <_>
          <internalNodes>
            0 -1 162 -1.6600174829363823e-02</internalNodes>
          <leafValues>
            5.9080827236175537e-01 -9.8905034363269806e-02</leafValues></_>
        <_>
          <internalNodes>
            0 -1 174 1.4005156233906746e-02</internalNodes>
          <leafValues>
            -1.4960457384586334e-01 4.9629825353622437e-01</leafValues></_>
        <_>
          <internalNodes>
            0 -1 129 1.0108735295943916e-04</internalNodes>
          <leafValues>
            -1.7838524281978607e-01 3.4117850661277771e-01</leafValues></_>
        <_>
          <internalNodes>
            0 -1 114 -9.9320826120674610e-04</internalNodes>
          <leafValues>
            3.0377548933029175e-01 -1.9142197072505951e-01</leafValues></_>
        <_>
          <internalNodes>
            0 -1 167 3.3146454952657223e-03</internalNodes>
          <leafValues>
            -1.0393682867288589e-01 5.1837450265884399e-01</leafValues></_>
        <_>
          <internalNodes>
            0 -1 113 -1.1692964471876621e-03</internalNodes>
          <leafValues>
            3.0208364129066467e-01 -1.9254583120346069e-01</leafValues></_>
        <_>
          <internalNodes>
            0 -1 220 1.6521142795681953e-02</internalNodes>
          <leafValues>
            -7.4638746678829193e-02 7.0151257514953613e-01</leafValues></_>
        <_>
          <internalNodes>
            0 -1 117 4.6637533232569695e-03</internalNodes>
          <leafValues>
            -2.0488539338111877e-01 2.7782979607582092e-01</leafValues></_>
        <_>
          <internalNodes>
            0 -1 91 -6.2805926427245140e-04</internalNodes>
          <leafValues>
            -7.1053034067153931e-01 7.1758277714252472e-02</leafValues></_>
        <_>
          <internalNodes>
            0 -1 182 -8.0571371654514223e-05</internalNodes>
          <leafValues>
            2.3695988953113556e-01 -2.2353591024875641e-01</leafValues></_>
        <_>
          <internalNodes>
            0 -1 8 1.7448146827518940e-03</internalNodes>
          <leafValues>
            -1.0057305544614792e-01 5.6411886215209961e-01</leafValues></_>
        <_>
          <internalNodes>
            0 -1 112 7.0458743721246719e-05</internalNodes>
          <leafValues>
            -1.8314874172210693e-01 2.9361832141876221e-01</leafValues></_>
        <_>
          <internalNodes>
            0 -1 21 -1.1788079515099525e-02</internalNodes>
          <leafValues>
            5.7718330621719360e-01 -9.9900029599666595e-02</leafValues></_>
        <_>
          <internalNodes>
            0 -1 78 7.8404357191175222e-04</internalNodes>
          <leafValues>
            -1.4449821412563324e-01 3.3784684538841248e-01</leafValues></_>
        <_>
          <internalNodes>
            0 -1 101 -7.8745384234935045e-04</internalNodes>
          <leafValues>
            3.1754520535469055e-01 -1.4510416984558105e-01</leafValues></_>
        <_>
          <internalNodes>
            0 -1 217 -4.6061570174060762e-05</internalNodes>
          <leafValues>
            -2.9993310570716858e-01 1.7629635334014893e-01</leafValues></_>
        <_>
          <internalNodes>
            0 -1 179 1.1502150446176529e-03</internalNodes>
          <leafValues>
            -1.8982958793640137e-01 2.6188972592353821e-01</leafValues></_>
        <_>
          <internalNodes>
            0 -1 193 -1.3420989271253347e-03</internalNodes>
          <leafValues>
            1.3853794336318970e-01 -3.5320049524307251e-01</leafValues></_>
        <_>
          <internalNodes>
            0 -1 224 -3.0551974195986986e-03</internalNodes>
          <leafValues>
            5.2605736255645752e-01 -8.8446557521820068e-02</leafValues></_>
        <_>
          <internalNodes>
            0 -1 134 -4.8347783740609884e-04</internalNodes>
          <leafValues>
            2.7738326787948608e-01 -1.7852492630481720e-01</leafValues></_>
        <_>
          <internalNodes>
            0 -1 31 1.0355034610256553e-03</internalNodes>
          <leafValues>
            5.6188412010669708e-02 -8.2413238286972046e-01</leafValues></_>
        <_>
          <internalNodes>
            0 -1 51 -3.0326500564115122e-05</internalNodes>
          <leafValues>
            -3.1804424524307251e-01 1.5774539113044739e-01</leafValues></_>
        <_>
          <internalNodes>
            0 -1 41 -2.7677914476953447e-04</internalNodes>
          <leafValues>
            2.6226261258125305e-01 -1.8693575263023376e-01</leafValues></_>
        <_>
          <internalNodes>
            0 -1 62 9.0225879102945328e-04</internalNodes>
          <leafValues>
            -1.2515449523925781e-01 3.7632647156715393e-01</leafValues></_>
        <_>
          <internalNodes>
            0 -1 87 -2.0369254052639008e-03</internalNodes>
          <leafValues>
            -7.4640381336212158e-01 6.7183934152126312e-02</leafValues></_>
        <_>
          <internalNodes>
            0 -1 154 -1.0086935944855213e-03</internalNodes>
          <leafValues>
            2.8419926762580872e-01 -1.6052657365798950e-01</leafValues></_>
        <_>
          <internalNodes>
            0 -1 99 -2.6007681153714657e-03</internalNodes>
          <leafValues>
            5.8615618944168091e-01 -7.5382128357887268e-02</leafValues></_>
        <_>
          <internalNodes>
            0 -1 35 2.4941377341747284e-03</internalNodes>
          <leafValues>
            -1.0792005062103271e-01 4.2027428746223450e-01</leafValues></_></weakClassifiers></_>
    <!-- stage 9 -->
    <_>
      <maxWeakCount>31</maxWeakCount>
      <stageThreshold>-8.0949115753173828e-01</stageThreshold>
      <weakClassifiers>
        <_>
          <internalNodes>
            0 -1 13 -4.7691222280263901e-03</internalNodes>
          <leafValues>
            8.1850534677505493e-01 1.9617706537246704e-01</leafValues></_>
        <_>
          <internalNodes>
            0 -1 93 4.6446642954833806e-05</internalNodes>
          <leafValues>
            -2.1431191265583038e-01 2.8816586732864380e-01</leafValues></_>
        <_>
          <internalNodes>
            0 -1 221 -6.2146689742803574e-03</internalNodes>
          <leafValues>
            4.0037146210670471e-01 -1.5837498009204865e-01</leafValues></_>
        <_>
          <internalNodes>
            0 -1 157 3.8905427791178226e-03</internalNodes>
          <leafValues>
            -1.7962940037250519e-01 4.5436644554138184e-01</leafValues></_>
        <_>
          <internalNodes>
            0 -1 26 -1.4111374039202929e-03</internalNodes>
          <leafValues>
            2.7752262353897095e-01 -2.2164778411388397e-01</leafValues></_>
        <_>
          <internalNodes>
            0 -1 90 4.8214709386229515e-04</internalNodes>
          <leafValues>
            -2.4272927641868591e-01 2.3915147781372070e-01</leafValues></_>
        <_>
          <internalNodes>
            0 -1 165 3.8791298866271973e-03</internalNodes>
          <leafValues>
            -1.1956503242254257e-01 5.4931050539016724e-01</leafValues></_>
        <_>
          <internalNodes>
            0 -1 29 -3.7826497107744217e-02</internalNodes>
          <leafValues>
            5.4452782869338989e-01 -8.8386863470077515e-02</leafValues></_>
        <_>
          <internalNodes>
            0 -1 64 -3.4765872987918556e-04</internalNodes>
          <leafValues>
            3.1439208984375000e-01 -1.6578257083892822e-01</leafValues></_>
        <_>
          <internalNodes>
            0 -1 76 1.1093511711806059e-03</internalNodes>
          <leafValues>
            -1.4902795851230621e-01 3.9868369698524475e-01</leafValues></_>
        <_>
          <internalNodes>
            0 -1 104 -2.4723228998482227e-03</internalNodes>
          <leafValues>
            -5.3459924459457397e-01 1.0629141330718994e-01</leafValues></_>
        <_>
          <internalNodes>
            0 -1 36 1.8378070089966059e-03</internalNodes>
          <leafValues>
            -1.4146916568279266e-01 3.7586590647697449e-01</leafValues></_>
        <_>
          <internalNodes>
            0 -1 196 2.1642806008458138e-02</internalNodes>
          <leafValues>
            -1.1228656023740768e-01 4.1263872385025024e-01</leafValues></_>
        <_>
          <internalNodes>
            0 -1 149 5.2927271462976933e-04</internalNodes>
          <leafValues>
            -1.6874721646308899e-01 3.3514705300331116e-01</leafValues></_>
        <_>
          <internalNodes>
            0 -1 191 4.7082145465537906e-04</internalNodes>
          <leafValues>
            8.7166421115398407e-02 -5.7139748334884644e-01</leafValues></_>
        <_>
          <internalNodes>
            0 -1 145 -3.6865126457996666e-04</internalNodes>
          <leafValues>
            2.2845061123371124e-01 -2.0193699002265930e-01</leafValues></_>
        <_>
          <internalNodes>
            0 -1 98 -1.2981221079826355e-03</internalNodes>
          <leafValues>
            2.6473596692085266e-01 -2.0439110696315765e-01</leafValues></_>
        <_>
          <internalNodes>
            0 -1 46 2.0699098706245422e-02</internalNodes>
          <leafValues>
            -1.1037492752075195e-01 5.0892907381057739e-01</leafValues></_>
        <_>
          <internalNodes>
            0 -1 4 8.8979238644242287e-03</internalNodes>
          <leafValues>
            -1.1995345354080200e-01 3.7084022164344788e-01</leafValues></_>
        <_>
          <internalNodes>
            0 -1 56 -3.3807812724262476e-04</internalNodes>
          <leafValues>
            -5.2214121818542480e-01 1.0098811984062195e-01</leafValues></_>
        <_>
          <internalNodes>
            0 -1 209 2.3643652093596756e-04</internalNodes>
          <leafValues>
            -2.6248964667320251e-01 1.6594344377517700e-01</leafValues></_>
        <_>
          <internalNodes>
            0 -1 204 -2.6254291879013181e-04</internalNodes>
          <leafValues>
            1.5218678116798401e-01 -3.0666044354438782e-01</leafValues></_>
        <_>
          <internalNodes>
            0 -1 100 -4.4991209870204329e-04</internalNodes>
          <leafValues>
            2.4848656356334686e-01 -2.0311841368675232e-01</leafValues></_>
        <_>
          <internalNodes>
            0 -1 208 8.4524403791874647e-04</internalNodes>
          <leafValues>
            8.3054669201374054e-02 -5.6459885835647583e-01</leafValues></_>
        <_>
          <internalNodes>
            0 -1 195 1.2785465514753014e-04</internalNodes>
          <leafValues>
            -1.7920053005218506e-01 2.6223927736282349e-01</leafValues></_>
        <_>
          <internalNodes>
            0 -1 164 -6.1124609783291817e-04</internalNodes>
          <leafValues>
            -6.3039231300354004e-01 7.1829192340373993e-02</leafValues></_>
        <_>
          <internalNodes>
            0 -1 81 -1.5916875563561916e-03</internalNodes>
          <leafValues>
            3.5086402297019958e-01 -1.2559036910533905e-01</leafValues></_>
        <_>
          <internalNodes>
            0 -1 37 9.0831040870398283e-04</internalNodes>
          <leafValues>
            -1.4799177646636963e-01 2.9970389604568481e-01</leafValues></_>
        <_>
          <internalNodes>
            0 -1 38 3.0696854810230434e-04</internalNodes>
          <leafValues>
            7.8197181224822998e-02 -5.7127571105957031e-01</leafValues></_>
        <_>
          <internalNodes>
            0 -1 6 6.9368339609354734e-04</internalNodes>
          <leafValues>
            -2.6917394995689392e-01 1.6234637796878815e-01</leafValues></_>
        <_>
          <internalNodes>
            0 -1 175 -9.6595601644366980e-04</internalNodes>
          <leafValues>
            1.5614719688892365e-01 -3.0617016553878784e-01</leafValues></_></weakClassifiers></_></stages>
  <features>
    <_>
      <rects>
        <_>
          0 2 38 12 -1.</_>
        <_>
          19 2 19 12 2.</_></rects>
      <tilted>0</tilted></_>
    <_>
      <rects>
        <_>
          0 9 4 28 -1.</_>
        <_>
          0 9 2 14 2.</_>
        <_>
          2 23 2 14 2.</_></rects>
      <tilted>0</tilted></_>
    <_>
      <rects>
        <_>
          0 23 9 12 -1.</_>
        <_>
          3 23 3 12 3.</_></rects>
      <tilted>0</tilted></_>
    <_>
      <rects>
        <_>
          0 25 6 4 -1.</_>
        <_>
          2 25 2 4 3.</_></rects>
      <tilted>0</tilted></_>
    <_>
      <rects>
        <_>
          0 25 6 12 -1.</_>
        <_>
          2 25 2 12 3.</_></rects>
      <tilted>0</tilted></_>
    <_>
      <rects>
        <_>
          0 26 6 11 -1.</_>
        <_>
          2 26 2 11 3.</_></rects>
      <tilted>0</tilted></_>
    <_>
      <rects>
        <_>
          1 4 18 6 -1.</_>
        <_>
          1 7 18 3 2.</_></rects>
      <tilted>0</tilted></_>
    <_>
      <rects>
        <_>
          2 18 6 10 -1.</_>
        <_>
          2 18 3 5 2.</_>
        <_>
          5 23 3 5 2.</_></rects>
      <tilted>0</tilted></_>
    <_>
      <rects>
        <_>
          2 25 2 4 -1.</_>
        <_>
          3 25 1 4 2.</_></rects>
      <tilted>0</tilted></_>
    <_>
      <rects>
        <_>
          2 26 6 5 -1.</_>
        <_>
          4 26 2 5 3.</_></rects>
      <tilted>0</tilted></_>
    <_>
      <rects>
        <_>
          3 2 36 3 -1.</_>
        <_>
          21 2 18 3 2.</_></rects>
      <tilted>0</tilted></_>
    <_>
      <rects>
        <_>
          3 10 6 22 -1.</_>
        <_>
          3 10 3 11 2.</_>
        <_>
          6 21 3 11 2.</_></rects>
      <tilted>0</tilted></_>
    <_>
      <rects>
        <_>
          3 10 9 21 -1.</_>
        <_>
          6 10 3 21 3.</_></rects>
      <tilted>0</tilted></_>
    <_>
      <rects>
        <_>
          3 10 8 4 -1.</_>
        <_>
          3 10 4 2 2.</_>
        <_>
          7 12 4 2 2.</_></rects>
      <tilted>0</tilted></_>
    <_>
      <rects>
        <_>
          3 14 4 18 -1.</_>
        <_>
          3 14 2 9 2.</_>
        <_>
          5 23 2 9 2.</_></rects>
      <tilted>0</tilted></_>
    <_>
      <rects>
        <_>
          3 21 12 8 -1.</_>
        <_>
          3 21 6 4 2.</_>
        <_>
          9 25 6 4 2.</_></rects>
      <tilted>0</tilted></_>
    <_>
      <rects>
        <_>
          3 23 6 10 -1.</_>
        <_>
          6 23 3 10 2.</_></rects>
      <tilted>0</tilted></_>
    <_>
      <rects>
        <_>
          3 26 12 5 -1.</_>
        <_>
          9 26 6 5 2.</_></rects>
      <tilted>0</tilted></_>
    <_>
      <rects>
        <_>
          3 27 10 2 -1.</_>
        <_>
          8 27 5 2 2.</_></rects>
      <tilted>0</tilted></_>
    <_>
      <rects>
        <_>
          3 32 21 6 -1.</_>
        <_>
          10 32 7 6 3.</_></rects>
      <tilted>0</tilted></_>
    <_>
      <rects>
        <_>
          3 33 26 3 -1.</_>
        <_>
          16 33 13 3 2.</_></rects>
      <tilted>0</tilted></_>
    <_>
      <rects>
        <_>
          4 6 8 8 -1.</_>
        <_>
          4 6 4 4 2.</_>
        <_>
          8 10 4 4 2.</_></rects>
      <tilted>0</tilted></_>
    <_>
      <rects>
        <_>
          4 11 6 28 -1.</_>
        <_>
          7 11 3 28 2.</_></rects>
      <tilted>0</tilted></_>
    <_>
      <rects>
        <_>
          4 12 6 6 -1.</_>
        <_>
          4 12 3 3 2.</_>
        <_>
          7 15 3 3 2.</_></rects>
      <tilted>0</tilted></_>
    <_>
      <rects>
        <_>
          4 13 2 20 -1.</_>
        <_>
          4 13 1 10 2.</_>
        <_>
          5 23 1 10 2.</_></rects>
      <tilted>0</tilted></_>
    <_>
      <rects>
        <_>
          4 15 6 12 -1.</_>
        <_>
          4 15 3 6 2.</_>
        <_>
          7 21 3 6 2.</_></rects>
      <tilted>0</tilted></_>
    <_>
      <rects>
        <_>
          4 16 2 14 -1.</_>
        <_>
          4 16 1 7 2.</_>
        <_>
          5 23 1 7 2.</_></rects>
      <tilted>0</tilted></_>
    <_>
      <rects>
        <_>
          4 33 22 3 -1.</_>
        <_>
          15 33 11 3 2.</_></rects>
      <tilted>0</tilted></_>
    <_>
      <rects>
        <_>
          4 34 18 1 -1.</_>
        <_>
          10 34 6 1 3.</_></rects>
      <tilted>0</tilted></_>
    <_>
      <rects>
        <_>
          5 1 20 10 -1.</_>
        <_>
          15 1 10 10 2.</_></rects>
      <tilted>0</tilted></_>
    <_>
      <rects>
        <_>
          5 9 2 24 -1.</_>
        <_>
          5 9 1 12 2.</_>
        <_>
          6 21 1 12 2.</_></rects>
      <tilted>0</tilted></_>
    <_>
      <rects>
        <_>
          5 10 2 2 -1.</_>
        <_>
          5 11 2 1 2.</_></rects>
      <tilted>0</tilted></_>
    <_>
      <rects>
        <_>
          5 11 2 8 -1.</_>
        <_>
          6 11 1 8 2.</_></rects>
      <tilted>0</tilted></_>
    <_>
      <rects>
        <_>
          5 11 2 3 -1.</_>
        <_>
          5 12 2 1 3.</_></rects>
      <tilted>0</tilted></_>
    <_>
      <rects>
        <_>
          5 11 6 4 -1.</_>
        <_>
          5 11 3 2 2.</_>
        <_>
          8 13 3 2 2.</_></rects>
      <tilted>0</tilted></_>
    <_>
      <rects>
        <_>
          5 12 4 6 -1.</_>
        <_>
          5 12 2 3 2.</_>
        <_>
          7 15 2 3 2.</_></rects>
      <tilted>0</tilted></_>
    <_>
      <rects>
        <_>
          5 12 6 4 -1.</_>
        <_>
          5 12 3 2 2.</_>
        <_>
          8 14 3 2 2.</_></rects>
      <tilted>0</tilted></_>
    <_>
      <rects>
        <_>
          5 14 2 6 -1.</_>
        <_>
          5 17 2 3 2.</_></rects>
      <tilted>0</tilted></_>
    <_>
      <rects>
        <_>
          5 15 1 2 -1.</_>
        <_>
          5 16 1 1 2.</_></rects>
      <tilted>0</tilted></_>
    <_>
      <rects>
        <_>
          5 16 2 2 -1.</_>
        <_>
          6 16 1 2 2.</_></rects>
      <tilted>0</tilted></_>
    <_>
      <rects>
        <_>
          5 22 4 15 -1.</_>
        <_>
          7 22 2 15 2.</_></rects>
      <tilted>0</tilted></_>
    <_>
      <rects>
        <_>
          5 24 2 2 -1.</_>
        <_>
          6 24 1 2 2.</_></rects>
      <tilted>0</tilted></_>
    <_>
      <rects>
        <_>
          5 27 2 1 -1.</_>
        <_>
          6 27 1 1 2.</_></rects>
      <tilted>0</tilted></_>
    <_>
      <rects>
        <_>
          6 4 13 9 -1.</_>
        <_>
          6 7 13 3 3.</_></rects>
      <tilted>0</tilted></_>
    <_>
      <rects>
        <_>
          6 6 3 13 -1.</_>
        <_>
          7 6 1 13 3.</_></rects>
      <tilted>0</tilted></_>
    <_>
      <rects>
        <_>
          6 6 3 14 -1.</_>
        <_>
          7 6 1 14 3.</_></rects>
      <tilted>0</tilted></_>
    <_>
      <rects>
        <_>
          6 7 4 15 -1.</_>
        <_>
          6 12 4 5 3.</_></rects>
      <tilted>0</tilted></_>
    <_>
      <rects>
        <_>
          6 7 10 6 -1.</_>
        <_>
          6 7 5 3 2.</_>
        <_>
          11 10 5 3 2.</_></rects>
      <tilted>0</tilted></_>
    <_>
      <rects>
        <_>
          6 7 12 4 -1.</_>
        <_>
          6 7 6 2 2.</_>
        <_>
          12 9 6 2 2.</_></rects>
      <tilted>0</tilted></_>
    <_>
      <rects>
        <_>
          6 8 8 4 -1.</_>
        <_>
          6 8 4 2 2.</_>
        <_>
          10 10 4 2 2.</_></rects>
      <tilted>0</tilted></_>
    <_>
      <rects>
        <_>
          6 9 10 6 -1.</_>
        <_>
          6 9 5 3 2.</_>
        <_>
          11 12 5 3 2.</_></rects>
      <tilted>0</tilted></_>
    <_>
      <rects>
        <_>
          6 10 1 2 -1.</_>
        <_>
          6 11 1 1 2.</_></rects>
      <tilted>0</tilted></_>
    <_>
      <rects>
        <_>
          6 10 1 3 -1.</_>
        <_>
          6 11 1 1 3.</_></rects>
      <tilted>0</tilted></_>
    <_>
      <rects>
        <_>
          6 10 4 1 -1.</_>
        <_>
          8 10 2 1 2.</_></rects>
      <tilted>0</tilted></_>
    <_>
      <rects>
        <_>
          6 10 4 10 -1.</_>
        <_>
          6 15 4 5 2.</_></rects>
      <tilted>0</tilted></_>
    <_>
      <rects>
        <_>
          6 11 2 1 -1.</_>
        <_>
          7 11 1 1 2.</_></rects>
      <tilted>0</tilted></_>
    <_>
      <rects>
        <_>
          6 12 1 3 -1.</_>
        <_>
          6 13 1 1 3.</_></rects>
      <tilted>0</tilted></_>
    <_>
      <rects>
        <_>
          6 12 2 2 -1.</_>
        <_>
          7 12 1 2 2.</_></rects>
      <tilted>0</tilted></_>
    <_>
      <rects>
        <_>
          6 13 1 3 -1.</_>
        <_>
          6 14 1 1 3.</_></rects>
      <tilted>0</tilted></_>
    <_>
      <rects>
        <_>
          6 13 1 6 -1.</_>
        <_>
          6 16 1 3 2.</_></rects>
      <tilted>0</tilted></_>
    <_>
      <rects>
        <_>
          6 16 2 3 -1.</_>
        <_>
          6 17 2 1 3.</_></rects>
      <tilted>0</tilted></_>
    <_>
      <rects>
        <_>
          6 16 4 4 -1.</_>
        <_>
          6 16 2 2 2.</_>
        <_>
          8 18 2 2 2.</_></rects>
      <tilted>0</tilted></_>
    <_>
      <rects>
        <_>
          6 18 3 5 -1.</_>
        <_>
          7 18 1 5 3.</_></rects>
      <tilted>0</tilted></_>
    <_>
      <rects>
        <_>
          6 24 12 8 -1.</_>
        <_>
          6 24 6 4 2.</_>
        <_>
          12 28 6 4 2.</_></rects>
      <tilted>0</tilted></_>
    <_>
      <rects>
        <_>
          6 26 2 2 -1.</_>
        <_>
          7 26 1 2 2.</_></rects>
      <tilted>0</tilted></_>
    <_>
      <rects>
        <_>
          7 2 10 8 -1.</_>
        <_>
          7 2 5 4 2.</_>
        <_>
          12 6 5 4 2.</_></rects>
      <tilted>0</tilted></_>
    <_>
      <rects>
        <_>
          7 3 7 12 -1.</_>
        <_>
          7 7 7 4 3.</_></rects>
      <tilted>0</tilted></_>
    <_>
      <rects>
        <_>
          7 4 10 6 -1.</_>
        <_>
          7 4 5 3 2.</_>
        <_>
          12 7 5 3 2.</_></rects>
      <tilted>0</tilted></_>
    <_>
      <rects>
        <_>
          7 4 12 6 -1.</_>
        <_>
          7 4 6 3 2.</_>
        <_>
          13 7 6 3 2.</_></rects>
      <tilted>0</tilted></_>
    <_>
      <rects>
        <_>
          7 4 24 6 -1.</_>
        <_>
          7 4 12 3 2.</_>
        <_>
          19 7 12 3 2.</_></rects>
      <tilted>0</tilted></_>
    <_>
      <rects>
        <_>
          7 8 2 2 -1.</_>
        <_>
          8 8 1 2 2.</_></rects>
      <tilted>0</tilted></_>
    <_>
      <rects>
        <_>
          7 8 1 4 -1.</_>
        <_>
          7 10 1 2 2.</_></rects>
      <tilted>0</tilted></_>
    <_>
      <rects>
        <_>
          7 8 4 2 -1.</_>
        <_>
          9 8 2 2 2.</_></rects>
      <tilted>0</tilted></_>
    <_>
      <rects>
        <_>
          7 8 10 6 -1.</_>
        <_>
          7 8 5 3 2.</_>
        <_>
          12 11 5 3 2.</_></rects>
      <tilted>0</tilted></_>
    <_>
      <rects>
        <_>
          7 9 3 12 -1.</_>
        <_>
          7 13 3 4 3.</_></rects>
      <tilted>0</tilted></_>
    <_>
      <rects>
        <_>
          7 10 2 3 -1.</_>
        <_>
          8 10 1 3 2.</_></rects>
      <tilted>0</tilted></_>
    <_>
      <rects>
        <_>
          7 10 1 6 -1.</_>
        <_>
          7 13 1 3 2.</_></rects>
      <tilted>0</tilted></_>
    <_>
      <rects>
        <_>
          7 11 1 3 -1.</_>
        <_>
          7 12 1 1 3.</_></rects>
      <tilted>0</tilted></_>
    <_>
      <rects>
        <_>
          7 11 1 6 -1.</_>
        <_>
          7 14 1 3 2.</_></rects>
      <tilted>0</tilted></_>
    <_>
      <rects>
        <_>
          7 26 12 8 -1.</_>
        <_>
          7 26 6 4 2.</_>
        <_>
          13 30 6 4 2.</_></rects>
      <tilted>0</tilted></_>
    <_>
      <rects>
        <_>
          7 26 18 10 -1.</_>
        <_>
          7 26 9 5 2.</_>
        <_>
          16 31 9 5 2.</_></rects>
      <tilted>0</tilted></_>
    <_>
      <rects>
        <_>
          7 30 4 6 -1.</_>
        <_>
          7 30 2 3 2.</_>
        <_>
          9 33 2 3 2.</_></rects>
      <tilted>0</tilted></_>
    <_>
      <rects>
        <_>
          8 0 28 4 -1.</_>
        <_>
          8 0 14 2 2.</_>
        <_>
          22 2 14 2 2.</_></rects>
      <tilted>0</tilted></_>
    <_>
      <rects>
        <_>
          8 0 30 2 -1.</_>
        <_>
          8 0 15 1 2.</_>
        <_>
          23 1 15 1 2.</_></rects>
      <tilted>0</tilted></_>
    <_>
      <rects>
        <_>
          8 1 10 8 -1.</_>
        <_>
          8 1 5 4 2.</_>
        <_>
          13 5 5 4 2.</_></rects>
      <tilted>0</tilted></_>
    <_>
      <rects>
        <_>
          8 2 5 15 -1.</_>
        <_>
          8 7 5 5 3.</_></rects>
      <tilted>0</tilted></_>
    <_>
      <rects>
        <_>
          8 3 22 6 -1.</_>
        <_>
          8 3 11 3 2.</_>
        <_>
          19 6 11 3 2.</_></rects>
      <tilted>0</tilted></_>
    <_>
      <rects>
        <_>
          8 4 4 3 -1.</_>
        <_>
          8 5 4 1 3.</_></rects>
      <tilted>0</tilted></_>
    <_>
      <rects>
        <_>
          8 4 8 9 -1.</_>
        <_>
          8 7 8 3 3.</_></rects>
      <tilted>0</tilted></_>
    <_>
      <rects>
        <_>
          8 4 20 4 -1.</_>
        <_>
          8 4 10 2 2.</_>
        <_>
          18 6 10 2 2.</_></rects>
      <tilted>0</tilted></_>
    <_>
      <rects>
        <_>
          8 6 9 2 -1.</_>
        <_>
          8 7 9 1 2.</_></rects>
      <tilted>0</tilted></_>
    <_>
      <rects>
        <_>
          8 7 1 3 -1.</_>
        <_>
          8 8 1 1 3.</_></rects>
      <tilted>0</tilted></_>
    <_>
      <rects>
        <_>
          8 8 1 2 -1.</_>
        <_>
          8 9 1 1 2.</_></rects>
      <tilted>0</tilted></_>
    <_>
      <rects>
        <_>
          8 9 1 2 -1.</_>
        <_>
          8 10 1 1 2.</_></rects>
      <tilted>0</tilted></_>
    <_>
      <rects>
        <_>
          8 9 4 4 -1.</_>
        <_>
          8 9 2 2 2.</_>
        <_>
          10 11 2 2 2.</_></rects>
      <tilted>0</tilted></_>
    <_>
      <rects>
        <_>
          8 9 8 4 -1.</_>
        <_>
          8 9 4 2 2.</_>
        <_>
          12 11 4 2 2.</_></rects>
      <tilted>0</tilted></_>
    <_>
      <rects>
        <_>
          8 10 4 4 -1.</_>
        <_>
          8 10 2 2 2.</_>
        <_>
          10 12 2 2 2.</_></rects>
      <tilted>0</tilted></_>
    <_>
      <rects>
        <_>
          8 10 3 6 -1.</_>
        <_>
          8 12 3 2 3.</_></rects>
      <tilted>0</tilted></_>
    <_>
      <rects>
        <_>
          8 10 3 9 -1.</_>
        <_>
          8 13 3 3 3.</_></rects>
      <tilted>0</tilted></_>
    <_>
      <rects>
        <_>
          8 12 2 4 -1.</_>
        <_>
          8 14 2 2 2.</_></rects>
      <tilted>0</tilted></_>
    <_>
      <rects>
        <_>
          8 29 12 2 -1.</_>
        <_>
          8 29 6 1 2.</_>
        <_>
          14 30 6 1 2.</_></rects>
      <tilted>0</tilted></_>
    <_>
      <rects>
        <_>
          8 30 4 6 -1.</_>
        <_>
          8 30 2 3 2.</_>
        <_>
          10 33 2 3 2.</_></rects>
      <tilted>0</tilted></_>
    <_>
      <rects>
        <_>
          8 31 10 2 -1.</_>
        <_>
          13 31 5 2 2.</_></rects>
      <tilted>0</tilted></_>
    <_>
      <rects>
        <_>
          9 2 22 8 -1.</_>
        <_>
          9 2 11 4 2.</_>
        <_>
          20 6 11 4 2.</_></rects>
      <tilted>0</tilted></_>
    <_>
      <rects>
        <_>
          9 3 3 11 -1.</_>
        <_>
          10 3 1 11 3.</_></rects>
      <tilted>0</tilted></_>
    <_>
      <rects>
        <_>
          9 4 11 3 -1.</_>
        <_>
          9 5 11 1 3.</_></rects>
      <tilted>0</tilted></_>
    <_>
      <rects>
        <_>
          9 5 24 4 -1.</_>
        <_>
          9 5 12 2 2.</_>
        <_>
          21 7 12 2 2.</_></rects>
      <tilted>0</tilted></_>
    <_>
      <rects>
        <_>
          9 6 1 4 -1.</_>
        <_>
          9 8 1 2 2.</_></rects>
      <tilted>0</tilted></_>
    <_>
      <rects>
        <_>
          9 6 3 9 -1.</_>
        <_>
          10 6 1 9 3.</_></rects>
      <tilted>0</tilted></_>
    <_>
      <rects>
        <_>
          9 8 1 2 -1.</_>
        <_>
          9 9 1 1 2.</_></rects>
      <tilted>0</tilted></_>
    <_>
      <rects>
        <_>
          9 8 6 4 -1.</_>
        <_>
          9 8 3 2 2.</_>
        <_>
          12 10 3 2 2.</_></rects>
      <tilted>0</tilted></_>
    <_>
      <rects>
        <_>
          9 8 9 6 -1.</_>
        <_>
          9 10 9 2 3.</_></rects>
      <tilted>0</tilted></_>
    <_>
      <rects>
        <_>
          9 9 1 2 -1.</_>
        <_>
          9 10 1 1 2.</_></rects>
      <tilted>0</tilted></_>
    <_>
      <rects>
        <_>
          9 9 2 6 -1.</_>
        <_>
          9 11 2 2 3.</_></rects>
      <tilted>0</tilted></_>
    <_>
      <rects>
        <_>
          9 9 4 4 -1.</_>
        <_>
          9 9 2 2 2.</_>
        <_>
          11 11 2 2 2.</_></rects>
      <tilted>0</tilted></_>
    <_>
      <rects>
        <_>
          9 9 3 6 -1.</_>
        <_>
          9 11 3 2 3.</_></rects>
      <tilted>0</tilted></_>
    <_>
      <rects>
        <_>
          9 10 3 4 -1.</_>
        <_>
          9 12 3 2 2.</_></rects>
      <tilted>0</tilted></_>
    <_>
      <rects>
        <_>
          9 29 7 10 -1.</_>
        <_>
          9 34 7 5 2.</_></rects>
      <tilted>0</tilted></_>
    <_>
      <rects>
        <_>
          10 2 24 18 -1.</_>
        <_>
          10 11 24 9 2.</_></rects>
      <tilted>0</tilted></_>
    <_>
      <rects>
        <_>
          10 6 3 6 -1.</_>
        <_>
          11 6 1 6 3.</_></rects>
      <tilted>0</tilted></_>
    <_>
      <rects>
        <_>
          10 11 28 9 -1.</_>
        <_>
          10 14 28 3 3.</_></rects>
      <tilted>0</tilted></_>
    <_>
      <rects>
        <_>
          10 36 5 4 -1.</_>
        <_>
          10 38 5 2 2.</_></rects>
      <tilted>0</tilted></_>
    <_>
      <rects>
        <_>
          10 37 4 3 -1.</_>
        <_>
          10 38 4 1 3.</_></rects>
      <tilted>0</tilted></_>
    <_>
      <rects>
        <_>
          11 4 3 12 -1.</_>
        <_>
          12 4 1 12 3.</_></rects>
      <tilted>0</tilted></_>
    <_>
      <rects>
        <_>
          11 4 16 4 -1.</_>
        <_>
          11 4 8 2 2.</_>
        <_>
          19 6 8 2 2.</_></rects>
      <tilted>0</tilted></_>
    <_>
      <rects>
        <_>
          11 11 3 1 -1.</_>
        <_>
          12 11 1 1 3.</_></rects>
      <tilted>0</tilted></_>
    <_>
      <rects>
        <_>
          11 27 9 9 -1.</_>
        <_>
          11 30 9 3 3.</_></rects>
      <tilted>0</tilted></_>
    <_>
      <rects>
        <_>
          12 1 18 2 -1.</_>
        <_>
          12 1 9 1 2.</_>
        <_>
          21 2 9 1 2.</_></rects>
      <tilted>0</tilted></_>
    <_>
      <rects>
        <_>
          12 6 3 5 -1.</_>
        <_>
          13 6 1 5 3.</_></rects>
      <tilted>0</tilted></_>
    <_>
      <rects>
        <_>
          12 7 2 1 -1.</_>
        <_>
          13 7 1 1 2.</_></rects>
      <tilted>0</tilted></_>
    <_>
      <rects>
        <_>
          12 26 8 12 -1.</_>
        <_>
          12 30 8 4 3.</_></rects>
      <tilted>0</tilted></_>
    <_>
      <rects>
        <_>
          12 31 6 6 -1.</_>
        <_>
          12 34 6 3 2.</_></rects>
      <tilted>0</tilted></_>
    <_>
      <rects>
        <_>
          13 1 21 7 -1.</_>
        <_>
          20 1 7 7 3.</_></rects>
      <tilted>0</tilted></_>
    <_>
      <rects>
        <_>
          13 5 5 6 -1.</_>
        <_>
          13 7 5 2 3.</_></rects>
      <tilted>0</tilted></_>
    <_>
      <rects>
        <_>
          13 31 4 4 -1.</_>
        <_>
          13 31 2 2 2.</_>
        <_>
          15 33 2 2 2.</_></rects>
      <tilted>0</tilted></_>
    <_>
      <rects>
        <_>
          13 36 12 4 -1.</_>
        <_>
          13 36 6 2 2.</_>
        <_>
          19 38 6 2 2.</_></rects>
      <tilted>0</tilted></_>
    <_>
      <rects>
        <_>
          14 3 3 12 -1.</_>
        <_>
          15 3 1 12 3.</_></rects>
      <tilted>0</tilted></_>
    <_>
      <rects>
        <_>
          14 3 21 1 -1.</_>
        <_>
          21 3 7 1 3.</_></rects>
      <tilted>0</tilted></_>
    <_>
      <rects>
        <_>
          14 9 22 4 -1.</_>
        <_>
          14 9 11 2 2.</_>
        <_>
          25 11 11 2 2.</_></rects>
      <tilted>0</tilted></_>
    <_>
      <rects>
        <_>
          15 0 12 4 -1.</_>
        <_>
          15 0 6 2 2.</_>
        <_>
          21 2 6 2 2.</_></rects>
      <tilted>0</tilted></_>
    <_>
      <rects>
        <_>
          15 0 20 4 -1.</_>
        <_>
          15 0 10 2 2.</_>
        <_>
          25 2 10 2 2.</_></rects>
      <tilted>0</tilted></_>
    <_>
      <rects>
        <_>
          15 2 21 5 -1.</_>
        <_>
          22 2 7 5 3.</_></rects>
      <tilted>0</tilted></_>
    <_>
      <rects>
        <_>
          15 2 24 5 -1.</_>
        <_>
          23 2 8 5 3.</_></rects>
      <tilted>0</tilted></_>
    <_>
      <rects>
        <_>
          15 5 8 10 -1.</_>
        <_>
          15 5 4 5 2.</_>
        <_>
          19 10 4 5 2.</_></rects>
      <tilted>0</tilted></_>
    <_>
      <rects>
        <_>
          15 8 6 15 -1.</_>
        <_>
          15 13 6 5 3.</_></rects>
      <tilted>0</tilted></_>
    <_>
      <rects>
        <_>
          17 5 6 2 -1.</_>
        <_>
          17 5 3 1 2.</_>
        <_>
          20 6 3 1 2.</_></rects>
      <tilted>0</tilted></_>
    <_>
      <rects>
        <_>
          17 7 20 8 -1.</_>
        <_>
          17 7 10 4 2.</_>
        <_>
          27 11 10 4 2.</_></rects>
      <tilted>0</tilted></_>
    <_>
      <rects>
        <_>
          18 4 15 3 -1.</_>
        <_>
          23 4 5 3 3.</_></rects>
      <tilted>0</tilted></_>
    <_>
      <rects>
        <_>
          18 6 20 6 -1.</_>
        <_>
          28 6 10 6 2.</_></rects>
      <tilted>0</tilted></_>
    <_>
      <rects>
        <_>
          20 30 10 2 -1.</_>
        <_>
          20 30 5 1 2.</_>
        <_>
          25 31 5 1 2.</_></rects>
      <tilted>0</tilted></_>
    <_>
      <rects>
        <_>
          21 0 6 9 -1.</_>
        <_>
          21 3 6 3 3.</_></rects>
      <tilted>0</tilted></_>
    <_>
      <rects>
        <_>
          21 0 15 4 -1.</_>
        <_>
          21 2 15 2 2.</_></rects>
      <tilted>0</tilted></_>
    <_>
      <rects>
        <_>
          21 0 16 4 -1.</_>
        <_>
          21 2 16 2 2.</_></rects>
      <tilted>0</tilted></_>
    <_>
      <rects>
        <_>
          21 4 9 2 -1.</_>
        <_>
          24 4 3 2 3.</_></rects>
      <tilted>0</tilted></_>
    <_>
      <rects>
        <_>
          21 14 2 6 -1.</_>
        <_>
          21 17 2 3 2.</_></rects>
      <tilted>0</tilted></_>
    <_>
      <rects>
        <_>
          22 0 15 4 -1.</_>
        <_>
          22 2 15 2 2.</_></rects>
      <tilted>0</tilted></_>
    <_>
      <rects>
        <_>
          22 1 10 2 -1.</_>
        <_>
          22 2 10 1 2.</_></rects>
      <tilted>0</tilted></_>
    <_>
      <rects>
        <_>
          22 1 12 2 -1.</_>
        <_>
          22 2 12 1 2.</_></rects>
      <tilted>0</tilted></_>
    <_>
      <rects>
        <_>
          22 2 11 10 -1.</_>
        <_>
          22 7 11 5 2.</_></rects>
      <tilted>0</tilted></_>
    <_>
      <rects>
        <_>
          22 3 16 10 -1.</_>
        <_>
          22 3 8 5 2.</_>
        <_>
          30 8 8 5 2.</_></rects>
      <tilted>0</tilted></_>
    <_>
      <rects>
        <_>
          23 0 5 9 -1.</_>
        <_>
          23 3 5 3 3.</_></rects>
      <tilted>0</tilted></_>
    <_>
      <rects>
        <_>
          23 0 12 2 -1.</_>
        <_>
          23 1 12 1 2.</_></rects>
      <tilted>0</tilted></_>
    <_>
      <rects>
        <_>
          23 3 4 8 -1.</_>
        <_>
          23 7 4 4 2.</_></rects>
      <tilted>0</tilted></_>
    <_>
      <rects>
        <_>
          23 4 14 8 -1.</_>
        <_>
          23 4 7 4 2.</_>
        <_>
          30 8 7 4 2.</_></rects>
      <tilted>0</tilted></_>
    <_>
      <rects>
        <_>
          23 5 3 1 -1.</_>
        <_>
          24 5 1 1 3.</_></rects>
      <tilted>0</tilted></_>
    <_>
      <rects>
        <_>
          24 4 6 4 -1.</_>
        <_>
          24 4 3 2 2.</_>
        <_>
          27 6 3 2 2.</_></rects>
      <tilted>0</tilted></_>
    <_>
      <rects>
        <_>
          24 7 12 4 -1.</_>
        <_>
          24 9 12 2 2.</_></rects>
      <tilted>0</tilted></_>
    <_>
      <rects>
        <_>
          25 0 8 2 -1.</_>
        <_>
          25 1 8 1 2.</_></rects>
      <tilted>0</tilted></_>
    <_>
      <rects>
        <_>
          25 3 1 3 -1.</_>
        <_>
          25 4 1 1 3.</_></rects>
      <tilted>0</tilted></_>
    <_>
      <rects>
        <_>
          25 4 12 12 -1.</_>
        <_>
          25 4 6 6 2.</_>
        <_>
          31 10 6 6 2.</_></rects>
      <tilted>0</tilted></_>
    <_>
      <rects>
        <_>
          25 6 10 2 -1.</_>
        <_>
          30 6 5 2 2.</_></rects>
      <tilted>0</tilted></_>
    <_>
      <rects>
        <_>
          25 6 15 3 -1.</_>
        <_>
          30 6 5 3 3.</_></rects>
      <tilted>0</tilted></_>
    <_>
      <rects>
        <_>
          25 24 6 10 -1.</_>
        <_>
          25 24 3 5 2.</_>
        <_>
          28 29 3 5 2.</_></rects>
      <tilted>0</tilted></_>
    <_>
      <rects>
        <_>
          26 1 3 34 -1.</_>
        <_>
          27 1 1 34 3.</_></rects>
      <tilted>0</tilted></_>
    <_>
      <rects>
        <_>
          26 2 8 6 -1.</_>
        <_>
          30 2 4 6 2.</_></rects>
      <tilted>0</tilted></_>
    <_>
      <rects>
        <_>
          26 6 10 4 -1.</_>
        <_>
          26 8 10 2 2.</_></rects>
      <tilted>0</tilted></_>
    <_>
      <rects>
        <_>
          26 7 8 4 -1.</_>
        <_>
          26 9 8 2 2.</_></rects>
      <tilted>0</tilted></_>
    <_>
      <rects>
        <_>
          26 7 9 4 -1.</_>
        <_>
          26 9 9 2 2.</_></rects>
      <tilted>0</tilted></_>
    <_>
      <rects>
        <_>
          26 7 9 6 -1.</_>
        <_>
          26 10 9 3 2.</_></rects>
      <tilted>0</tilted></_>
    <_>
      <rects>
        <_>
          26 28 8 3 -1.</_>
        <_>
          30 28 4 3 2.</_></rects>
      <tilted>0</tilted></_>
    <_>
      <rects>
        <_>
          27 2 4 2 -1.</_>
        <_>
          27 3 4 1 2.</_></rects>
      <tilted>0</tilted></_>
    <_>
      <rects>
        <_>
          27 3 3 3 -1.</_>
        <_>
          27 4 3 1 3.</_></rects>
      <tilted>0</tilted></_>
    <_>
      <rects>
        <_>
          27 7 1 2 -1.</_>
        <_>
          27 8 1 1 2.</_></rects>
      <tilted>0</tilted></_>
    <_>
      <rects>
        <_>
          27 26 3 4 -1.</_>
        <_>
          28 26 1 4 3.</_></rects>
      <tilted>0</tilted></_>
    <_>
      <rects>
        <_>
          27 29 2 6 -1.</_>
        <_>
          27 32 2 3 2.</_></rects>
      <tilted>0</tilted></_>
    <_>
      <rects>
        <_>
          28 1 8 12 -1.</_>
        <_>
          28 1 4 6 2.</_>
        <_>
          32 7 4 6 2.</_></rects>
      <tilted>0</tilted></_>
    <_>
      <rects>
        <_>
          28 2 10 12 -1.</_>
        <_>
          28 2 5 6 2.</_>
        <_>
          33 8 5 6 2.</_></rects>
      <tilted>0</tilted></_>
    <_>
      <rects>
        <_>
          28 5 10 10 -1.</_>
        <_>
          28 5 5 5 2.</_>
        <_>
          33 10 5 5 2.</_></rects>
      <tilted>0</tilted></_>
    <_>
      <rects>
        <_>
          28 6 12 7 -1.</_>
        <_>
          32 6 4 7 3.</_></rects>
      <tilted>0</tilted></_>
    <_>
      <rects>
        <_>
          28 6 8 8 -1.</_>
        <_>
          32 6 4 8 2.</_></rects>
      <tilted>0</tilted></_>
    <_>
      <rects>
        <_>
          28 8 12 2 -1.</_>
        <_>
          28 9 12 1 2.</_></rects>
      <tilted>0</tilted></_>
    <_>
      <rects>
        <_>
          29 3 1 3 -1.</_>
        <_>
          29 4 1 1 3.</_></rects>
      <tilted>0</tilted></_>
    <_>
      <rects>
        <_>
          29 5 5 14 -1.</_>
        <_>
          29 12 5 7 2.</_></rects>
      <tilted>0</tilted></_>
    <_>
      <rects>
        <_>
          29 6 5 12 -1.</_>
        <_>
          29 12 5 6 2.</_></rects>
      <tilted>0</tilted></_>
    <_>
      <rects>
        <_>
          29 17 2 2 -1.</_>
        <_>
          30 17 1 2 2.</_></rects>
      <tilted>0</tilted></_>
    <_>
      <rects>
        <_>
          29 29 2 2 -1.</_>
        <_>
          30 29 1 2 2.</_></rects>
      <tilted>0</tilted></_>
    <_>
      <rects>
        <_>
          30 0 6 18 -1.</_>
        <_>
          30 0 3 9 2.</_>
        <_>
          33 9 3 9 2.</_></rects>
      <tilted>0</tilted></_>
    <_>
      <rects>
        <_>
          30 2 6 16 -1.</_>
        <_>
          30 2 3 8 2.</_>
        <_>
          33 10 3 8 2.</_></rects>
      <tilted>0</tilted></_>
    <_>
      <rects>
        <_>
          30 4 3 25 -1.</_>
        <_>
          31 4 1 25 3.</_></rects>
      <tilted>0</tilted></_>
    <_>
      <rects>
        <_>
          30 5 4 7 -1.</_>
        <_>
          32 5 2 7 2.</_></rects>
      <tilted>0</tilted></_>
    <_>
      <rects>
        <_>
          31 0 9 18 -1.</_>
        <_>
          34 0 3 18 3.</_></rects>
      <tilted>0</tilted></_>
    <_>
      <rects>
        <_>
          31 5 7 12 -1.</_>
        <_>
          31 11 7 6 2.</_></rects>
      <tilted>0</tilted></_>
    <_>
      <rects>
        <_>
          31 6 4 9 -1.</_>
        <_>
          33 6 2 9 2.</_></rects>
      <tilted>0</tilted></_>
    <_>
      <rects>
        <_>
          31 6 9 13 -1.</_>
        <_>
          34 6 3 13 3.</_></rects>
      <tilted>0</tilted></_>
    <_>
      <rects>
        <_>
          31 7 1 12 -1.</_>
        <_>
          31 13 1 6 2.</_></rects>
      <tilted>0</tilted></_>
    <_>
      <rects>
        <_>
          31 7 4 8 -1.</_>
        <_>
          33 7 2 8 2.</_></rects>
      <tilted>0</tilted></_>
    <_>
      <rects>
        <_>
          31 10 9 7 -1.</_>
        <_>
          34 10 3 7 3.</_></rects>
      <tilted>0</tilted></_>
    <_>
      <rects>
        <_>
          31 17 1 3 -1.</_>
        <_>
          31 18 1 1 3.</_></rects>
      <tilted>0</tilted></_>
    <_>
      <rects>
        <_>
          31 19 1 4 -1.</_>
        <_>
          31 21 1 2 2.</_></rects>
      <tilted>0</tilted></_>
    <_>
      <rects>
        <_>
          32 4 2 8 -1.</_>
        <_>
          33 4 1 8 2.</_></rects>
      <tilted>0</tilted></_>
    <_>
      <rects>
        <_>
          32 9 4 9 -1.</_>
        <_>
          34 9 2 9 2.</_></rects>
      <tilted>0</tilted></_>
    <_>
      <rects>
        <_>
          32 9 6 10 -1.</_>
        <_>
          32 14 6 5 2.</_></rects>
      <tilted>0</tilted></_>
    <_>
      <rects>
        <_>
          32 18 4 1 -1.</_>
        <_>
          34 18 2 1 2.</_></rects>
      <tilted>0</tilted></_>
    <_>
      <rects>
        <_>
          33 6 2 22 -1.</_>
        <_>
          33 17 2 11 2.</_></rects>
      <tilted>0</tilted></_>
    <_>
      <rects>
        <_>
          33 7 2 11 -1.</_>
        <_>
          34 7 1 11 2.</_></rects>
      <tilted>0</tilted></_>
    <_>
      <rects>
        <_>
          34 2 3 24 -1.</_>
        <_>
          34 10 3 8 3.</_></rects>
      <tilted>0</tilted></_>
    <_>
      <rects>
        <_>
          34 6 4 18 -1.</_>
        <_>
          34 12 4 6 3.</_></rects>
      <tilted>0</tilted></_>
    <_>
      <rects>
        <_>
          34 7 3 1 -1.</_>
        <_>
          35 7 1 1 3.</_></rects>
      <tilted>0</tilted></_>
    <_>
      <rects>
        <_>
          34 8 2 2 -1.</_>
        <_>
          34 8 1 1 2.</_>
        <_>
          35 9 1 1 2.</_></rects>
      <tilted>0</tilted></_>
    <_>
      <rects>
        <_>
          35 16 4 8 -1.</_>
        <_>
          35 16 2 4 2.</_>
        <_>
          37 20 2 4 2.</_></rects>
      <tilted>0</tilted></_>
    <_>
      <rects>
        <_>
          36 2 1 27 -1.</_>
        <_>
          36 11 1 9 3.</_></rects>
      <tilted>0</tilted></_>
    <_>
      <rects>
        <_>
          36 7 4 8 -1.</_>
        <_>
          38 7 2 8 2.</_></rects>
      <tilted>0</tilted></_>
    <_>
      <rects>
        <_>
          36 12 4 3 -1.</_>
        <_>
          38 12 2 3 2.</_></rects>
      <tilted>0</tilted></_>
    <_>
      <rects>
        <_>
          37 9 1 14 -1.</_>
        <_>
          37 16 1 7 2.</_></rects>
      <tilted>0</tilted></_>
    <_>
      <rects>
        <_>
          37 11 2 8 -1.</_>
        <_>
          38 11 1 8 2.</_></rects>
      <tilted>0</tilted></_>
    <_>
      <rects>
        <_>
          38 11 1 6 -1.</_>
        <_>
          38 14 1 3 2.</_></rects>
      <tilted>0</tilted></_></features></cascade>
</opencv_storage>
